<?xml version="1.0"?>
<opencv_storage>
<cascade>
  <stageType>BOOST</stageType>
  <featureType>LBP</featureType>
  <height>20</height>
  <width>20</width>
  <stageParams>
    <boostType>GAB</boostType>
    <minHitRate>9.9900001287460327e-01</minHitRate>
    <maxFalseAlarm>2.0000000298023224e-01</maxFalseAlarm>
    <weightTrimRate>9.4999998807907104e-01</weightTrimRate>
    <maxDepth>1</maxDepth>
    <maxWeakCount>100</maxWeakCount></stageParams>
  <featureParams>
    <maxCatCount>256</maxCatCount>
    <featSize>1</featSize></featureParams>
  <stageNum>12</stageNum>
  <stages>
    <!-- stage 0 -->
    <_>
      <maxWeakCount>7</maxWeakCount>
      <stageThreshold>-6.0718679428100586e-01</stageThreshold>
      <weakClassifiers>
        <_>
          <internalNodes>
            0 -1 0 -1065171600 1090519041 4180 1444282383 16781466
            -1073217533 134254827 -1215823457</internalNodes>
          <leafValues>
            -7.0478171110153198e-01 2.5650557875633240e-01</leafValues></_>
        <_>
          <internalNodes>
            0 -1 83 -785194896 1239486614 537002194 1032855568
            1629716608 -871890919 -1600126427 -606490462</internalNodes>
          <leafValues>
            -5.6008833646774292e-01 5.2753043174743652e-01</leafValues></_>
        <_>
          <internalNodes>
            0 -1 57 -877346895 -558579716 -2053 -1126371841 2138986492
            -134221828 1065211835 -1143273498</internalNodes>
          <leafValues>
            -4.2105960845947266e-01 6.4852768182754517e-01</leafValues></_>
        <_>
          <internalNodes>
            0 -1 69 1126860820 -519290616 1073746056 487784480
            -2130566335 -1652553726 27402385 -1440997244</internalNodes>
          <leafValues>
            -6.3880467414855957e-01 4.4574385881423950e-01</leafValues></_>
        <_>
          <internalNodes>
            0 -1 6 1059106720 1866366714 -18441 -121770882 -17334916
            1610612726 2146852315 -1163956742</internalNodes>
          <leafValues>
            -4.4531062245368958e-01 6.4103448390960693e-01</leafValues></_>
        <_>
          <internalNodes>
            0 -1 34 -813895748 -16941329 -83918854 2147338172
            -1610678347 -42565762 -8945697 -558271502</internalNodes>
          <leafValues>
            -4.1897499561309814e-01 7.3699057102203369e-01</leafValues></_>
        <_>
          <internalNodes>
            0 -1 80 -1359169168 788029311 2147418092 -50331651
            1064599263 -268599298 -42782739 -94496841</internalNodes>
          <leafValues>
            -5.5034774541854858e-01 5.8020722866058350e-01</leafValues></_></weakClassifiers></_>
    <!-- stage 1 -->
    <_>
      <maxWeakCount>8</maxWeakCount>
      <stageThreshold>-9.3394732475280762e-01</stageThreshold>
      <weakClassifiers>
        <_>
          <internalNodes>
            0 -1 81 -241905644 -1291353767 4227649 939663633 -2129133046
            -1985937374 -1920786257 -110911432</internalNodes>
          <leafValues>
            -6.8032789230346680e-01 2.3664122819900513e-01</leafValues></_>
        <_>
          <internalNodes>
            0 -1 33 -1866431496 412684289 814326031 1846022546
            -2113388452 -1199569504 -1841090388 -1498265440</internalNodes>
          <leafValues>
            -6.4712524414062500e-01 3.7504255771636963e-01</leafValues></_>
        <_>
          <internalNodes>
            0 -1 37 -1056908866 419463256 -939486947 -1567207414
            -2139052024 461375745 337960 1376370856</internalNodes>
          <leafValues>
            -6.8186378479003906e-01 3.7476792931556702e-01</leafValues></_>
        <_>
          <internalNodes>
            0 -1 60 -233650403 -577765102 134217733 -2058288890 33589792
            -1577058175 184650280 -1904196600</internalNodes>
          <leafValues>
            -6.1678850650787354e-01 4.5102620124816895e-01</leafValues></_>
        <_>
          <internalNodes>
            0 -1 96 -787429616 -1840185325 169353 -2062346863
            -1475705760 -2013150712 -1467873205 -1985343176</internalNodes>
          <leafValues>
            -5.8467936515808105e-01 5.2300208806991577e-01</leafValues></_>
        <_>
          <internalNodes>
            0 -1 26 -1857785136 -520089518 -2130702023 620757064
            -2097004384 469958720 139422 -1883110768</internalNodes>
          <leafValues>
            -6.6452115774154663e-01 4.4921231269836426e-01</leafValues></_>
        <_>
          <internalNodes>
            0 -1 17 -998141741 -1761308607 134217749 440492164 537434113
            671092744 8685833 -827391974</internalNodes>
          <leafValues>
            -5.8228671550750732e-01 5.5913686752319336e-01</leafValues></_>
        <_>
          <internalNodes>
            0 -1 62 271583078 50598147 362927 -1866297080 -2013167127
            17039489 42473997 -2084079464</internalNodes>
          <leafValues>
            -6.3150370121002197e-01 5.4338753223419189e-01</leafValues></_></weakClassifiers></_>
    <!-- stage 2 -->
    <_>
      <maxWeakCount>8</maxWeakCount>
      <stageThreshold>-8.4812641143798828e-01</stageThreshold>
      <weakClassifiers>
        <_>
          <internalNodes>
            0 -1 55 -134210435 1980006599 -2063498307 1603371106
            805830811 -134085375 -237402455 -1410719469</internalNodes>
          <leafValues>
            -6.6799998283386230e-01 2.5600001215934753e-01</leafValues></_>
        <_>
          <internalNodes>
            0 -1 76 -1018732195 -2013215471 343953435 -1371384165
            -1810185679 -360562398 713171744 -825859296</internalNodes>
          <leafValues>
            -7.2297072410583496e-01 3.2922652363777161e-01</leafValues></_>
        <_>
          <internalNodes>
            0 -1 98 -666446543 -1221067689 -1857944749 -434349676
            -2004416451 -382631791 1376583698 -275888815</internalNodes>
          <leafValues>
            -5.5175006389617920e-01 4.8137301206588745e-01</leafValues></_>
        <_>
          <internalNodes>
            0 -1 71 -29475469 -483459098 -1209024578 -268435614
            2130574684 -134217793 -805560596 -1360265231</internalNodes>
          <leafValues>
            -4.4183647632598877e-01 6.2004435062408447e-01</leafValues></_>
        <_>
          <internalNodes>
            0 -1 4 -1877880731 -2013188077 16778073 1611792645
            -2113925047 -259913715 680023648 -1112399825</internalNodes>
          <leafValues>
            -5.9356653690338135e-01 5.1519328355789185e-01</leafValues></_>
        <_>
          <internalNodes>
            0 -1 14 -1073724712 -636141535 -2147381031 2034257921
            151126184 -81526248 -400522979 -1373093859</internalNodes>
          <leafValues>
            -5.4721421003341675e-01 5.2665740251541138e-01</leafValues></_>
        <_>
          <internalNodes>
            0 -1 63 -2063576779 -738129920 37769409 1984992271
            -2145770334 -1450078815 4726921 -1193271088</internalNodes>
          <leafValues>
            -8.0367612838745117e-01 3.6672297120094299e-01</leafValues></_>
        <_>
          <internalNodes>
            0 -1 72 -766344080 -1844440796 1359024538 -1946087424
            -2122079808 1636827776 1476397200 784001073</internalNodes>
          <leafValues>
            -6.8639421463012695e-01 4.4280964136123657e-01</leafValues></_></weakClassifiers></_>
    <!-- stage 3 -->
    <_>
      <maxWeakCount>7</maxWeakCount>
      <stageThreshold>-4.3183782696723938e-01</stageThreshold>
      <weakClassifiers>
        <_>
          <internalNodes>
            0 -1 10 -549333793 -31943806 268699969 -612334528 -804158838
            -364740590 -897480124 -870839614</internalNodes>
          <leafValues>
            -6.9135802984237671e-01 2.5000000000000000e-01</leafValues></_>
        <_>
          <internalNodes>
            0 -1 82 -799057574 152420431 16469 -1004740352 -1056894174
            75571328 -2124007423 -1205285236</internalNodes>
          <leafValues>
            -7.0883029699325562e-01 2.9743480682373047e-01</leafValues></_>
        <_>
          <internalNodes>
            0 -1 59 1938011461 -547535606 -788512736 -110984943
            1073857770 -2121670639 -1395883986 -1593554936</internalNodes>
          <leafValues>
            -5.4064685106277466e-01 4.6892493963241577e-01</leafValues></_>
        <_>
          <internalNodes>
            0 -1 66 -46203077 1962921468 1073741183 -1082200473 -163994
            -562905223 1610608380 -252469266</internalNodes>
          <leafValues>
            -4.1088804602622986e-01 6.8556922674179077e-01</leafValues></_>
        <_>
          <internalNodes>
            0 -1 68 -201079290 -2143010557 285212954 51413128 -192903661
            -125271936 100432 1153884450</internalNodes>
          <leafValues>
            -7.9419636726379395e-01 4.0801405906677246e-01</leafValues></_>
        <_>
          <internalNodes>
            0 -1 86 1446238213 -1040166108 -1056698363 -1467543535
            723296281 856164355 -1744828271 828926499</internalNodes>
          <leafValues>
            -7.2695547342300415e-01 3.8062131404876709e-01</leafValues></_>
        <_>
          <internalNodes>
            0 -1 9 1931794667 -2111733552 1476464902 -469729278 25804841
            1375864208 1095141536 -1180671966</internalNodes>
          <leafValues>
            -6.2373447418212891e-01 4.6444433927536011e-01</leafValues></_></weakClassifiers></_>
    <!-- stage 4 -->
    <_>
      <maxWeakCount>10</maxWeakCount>
      <stageThreshold>-1.1822336912155151e+00</stageThreshold>
      <weakClassifiers>
        <_>
          <internalNodes>
            0 -1 93 -765869747 -644446077 361300109 2039547023 12673240
            -1726447134 701876399 -857143285</internalNodes>
          <leafValues>
            -5.8377426862716675e-01 3.3333334326744080e-01</leafValues></_>
        <_>
          <internalNodes>
            0 -1 70 -1806810769 -2126790119 360459 1142263831
            -1869716811 278431744 -482067867 -738039408</internalNodes>
          <leafValues>
            -7.1615099906921387e-01 2.6127362251281738e-01</leafValues></_>
        <_>
          <internalNodes>
            0 -1 51 -805201890 -200278000 -1853258337 -612368364
            570523705 -2094530470 138457091 -1744795510</internalNodes>
          <leafValues>
            -5.2095127105712891e-01 4.1080099344253540e-01</leafValues></_>
        <_>
          <internalNodes>
            0 -1 24 1631963155 -1065286912 1082851736 -673906431
            -2008178270 -2013216764 1749887104 674457192</internalNodes>
          <leafValues>
            -5.5741685628890991e-01 4.4545310735702515e-01</leafValues></_>
        <_>
          <internalNodes>
            0 -1 88 -717122006 -1186905464 -2130701998 -384757756
            1090652553 1351319691 46363545 -2147350002</internalNodes>
          <leafValues>
            -5.3888601064682007e-01 4.7707223892211914e-01</leafValues></_>
        <_>
          <internalNodes>
            0 -1 5 -1073702799 -1055387631 276840669 227541137 562104885
            270827664 -1476262912 -527957986</internalNodes>
          <leafValues>
            -5.6935346126556396e-01 4.9490168690681458e-01</leafValues></_>
        <_>
          <internalNodes>
            0 -1 29 1857189407 -18694146 -277349505 -279969807 -42393602
            257884143 534771653 -1620955410</internalNodes>
          <leafValues>
            -4.9684125185012817e-01 5.9815740585327148e-01</leafValues></_>
        <_>
          <internalNodes>
            0 -1 77 -352456857 1069479934 -268493843 268369520 -8487046
            -1880096769 1610382707 -1396969793</internalNodes>
          <leafValues>
            -4.5949164032936096e-01 6.0617697238922119e-01</leafValues></_>
        <_>
          <internalNodes>
            0 -1 3 -1735269679 -2063589117 16778512 97517585 8913895
            -1870626663 1686136939 -1562296309</internalNodes>
          <leafValues>
            -4.7900602221488953e-01 5.7578259706497192e-01</leafValues></_>
        <_>
          <internalNodes>
            0 -1 20 954657717 -143135490 -1073938515 -336658702
            2138931039 -1073742594 1063022526 -1074138180</internalNodes>
          <leafValues>
            -4.6270895004272461e-01 6.4134281873703003e-01</leafValues></_></weakClassifiers></_>
    <!-- stage 5 -->
    <_>
      <maxWeakCount>8</maxWeakCount>
      <stageThreshold>-6.8983972072601318e-01</stageThreshold>
      <weakClassifiers>
        <_>
          <internalNodes>
            0 -1 67 -444214825 11665731 10588 -1322196224 1342478744
            -1297783798 -758398710 -1608183853</internalNodes>
          <leafValues>
            -6.6185569763183594e-01 1.9245283305644989e-01</leafValues></_>
        <_>
          <internalNodes>
            0 -1 31 -573321507 847251202 353042591 -2030000633
            1094943794 -669458432 -2008940501 -319408088</internalNodes>
          <leafValues>
            -5.1548331975936890e-01 4.1751444339752197e-01</leafValues></_>
        <_>
          <internalNodes>
            0 -1 64 306820064 420851715 -1861923519 760254729 1351655789
            -125616087 -1168501970 -972591967</internalNodes>
          <leafValues>
            -5.1839822530746460e-01 4.3262946605682373e-01</leafValues></_>
        <_>
          <internalNodes>
            0 -1 75 -1051698810 320339979 964759567 1999935530 696303834
            -30769024 1753358635 98009682</internalNodes>
          <leafValues>
            -5.1106905937194824e-01 4.4325149059295654e-01</leafValues></_>
        <_>
          <internalNodes>
            0 -1 12 -535636902 -784646078 -2146680664 1375944709
            1611178031 -1062567808 139018384 -816014390</internalNodes>
          <leafValues>
            -5.2880758047103882e-01 4.8999723792076111e-01</leafValues></_>
        <_>
          <internalNodes>
            0 -1 43 -67223560 2118057982 -33160 -1949777925 -1124122631
            -33686657 1979145944 -1788388134</internalNodes>
          <leafValues>
            -4.5733469724655151e-01 6.0835427045822144e-01</leafValues></_>
        <_>
          <internalNodes>
            0 -1 95 -2021385389 -801077615 -1879013997 244386562
            -2138828671 -624951295 159483941 -1498890239</internalNodes>
          <leafValues>
            -6.3422590494155884e-01 4.4473955035209656e-01</leafValues></_>
        <_>
          <internalNodes>
            0 -1 35 -510630510 -606912511 -1862232947 -1231978478
            50532363 939622920 1342724136 653077043</internalNodes>
          <leafValues>
            -6.2309688329696655e-01 4.3689221143722534e-01</leafValues></_></weakClassifiers></_>
    <!-- stage 6 -->
    <_>
      <maxWeakCount>9</maxWeakCount>
      <stageThreshold>-6.8219381570816040e-01</stageThreshold>
      <weakClassifiers>
        <_>
          <internalNodes>
            0 -1 79 -207652905 1383366671 -1879042989 1124270088
            1057063057 -1711095670 134781993 -54556123</internalNodes>
          <leafValues>
            -6.0600376129150391e-01 2.4423962831497192e-01</leafValues></_>
        <_>
          <internalNodes>
            0 -1 85 -2025773053 134730262 -2146402021 -1438365676
            -503152570 332923027 732539141 204765716</internalNodes>
          <leafValues>
            -9.4415330886840820e-01 1.8639273941516876e-01</leafValues></_>
        <_>
          <internalNodes>
            0 -1 99 1897640197 268435467 51462925 -1241243517 -335474451
            -392558462 -617860500 2121623040</internalNodes>
          <leafValues>
            -6.3583797216415405e-01 2.9427564144134521e-01</leafValues></_>
        <_>
          <internalNodes>
            0 -1 52 -267295998 1094766725 16974030 -2097117183
            1082147160 10485900 -1598027767 -1389329870</internalNodes>
          <leafValues>
            -5.4693430662155151e-01 4.1781973838806152e-01</leafValues></_>
        <_>
          <internalNodes>
            0 -1 32 1375768762 -124775936 1895864371 -589737705 164096
            589834 -1039514459 -1065146240</internalNodes>
          <leafValues>
            -5.9649139642715454e-01 4.0467730164527893e-01</leafValues></_>
        <_>
          <internalNodes>
            0 -1 44 -303632721 780070398 -257 -1174438914 -293601348
            645922815 1862270845 -964864616</internalNodes>
          <leafValues>
            -4.6603503823280334e-01 5.3025692701339722e-01</leafValues></_>
        <_>
          <internalNodes>
            0 -1 16 -1022309742 -1542880871 913 -2044853625 -2012740697
            355565737 -1869610092 1731938563</internalNodes>
          <leafValues>
            -5.9307497739791870e-01 4.1986015439033508e-01</leafValues></_>
        <_>
          <internalNodes>
            0 -1 74 -1049295396 58884163 -2046754535 -1676017661
            1073807370 1140883721 -125827057 -371700702</internalNodes>
          <leafValues>
            -5.7645785808563232e-01 4.3188601732254028e-01</leafValues></_>
        <_>
          <internalNodes>
            0 -1 21 -2109030053 -2129624831 153 545882115 4423822
            402653192 1241514688 291406005</internalNodes>
          <leafValues>
            -6.7197573184967041e-01 3.9809894561767578e-01</leafValues></_></weakClassifiers></_>
    <!-- stage 7 -->
    <_>
      <maxWeakCount>9</maxWeakCount>
      <stageThreshold>-7.3038601875305176e-01</stageThreshold>
      <weakClassifiers>
        <_>
          <internalNodes>
            0 -1 87 -217529706 -619183726 -2147475431 -250281856
            -1065319804 -1073676288 -1056405074 -1276390454</internalNodes>
          <leafValues>
            -5.7094591856002808e-01 4.3037974834442139e-01</leafValues></_>
        <_>
          <internalNodes>
            0 -1 23 94097600 -1059565488 134316544 -158269040 151327744
            1126203425 537209136 -84132631</internalNodes>
          <leafValues>
            -7.0804911851882935e-01 2.4972128868103027e-01</leafValues></_>
        <_>
          <internalNodes>
            0 -1 49 -302097229 -830570577 -67375235 -1745226377
            -444631081 -704708747 -269559832 -68194594</internalNodes>
          <leafValues>
            -3.4646487236022949e-01 6.7064213752746582e-01</leafValues></_>
        <_>
          <internalNodes>
            0 -1 41 2147360365 -17825793 -16418 1996422910 805305992
            -134348802 -83935802 -712073365</internalNodes>
          <leafValues>
            -4.2398729920387268e-01 5.3128987550735474e-01</leafValues></_>
        <_>
          <internalNodes>
            0 -1 28 -2146373179 1301348608 268704132 -1065287008
            16887851 -1324842862 -1836711887 -2010996702</internalNodes>
          <leafValues>
            -5.9561640024185181e-01 4.3516629934310913e-01</leafValues></_>
        <_>
          <internalNodes>
            0 -1 18 -184360904 -1727004592 -2146369320 1092698120
            1778451072 -2113896448 -2012839264 827543690</internalNodes>
          <leafValues>
            -5.6595158576965332e-01 4.6021565794944763e-01</leafValues></_>
        <_>
          <internalNodes>
            0 -1 39 1904558170 -1336606464 268505180 1570046101
            -1073182686 -2013101920 -1736425318 -712498686</internalNodes>
          <leafValues>
            -4.9427273869514465e-01 5.2077138423919678e-01</leafValues></_>
        <_>
          <internalNodes>
            0 -1 97 -805301704 -1585446695 285212684 1384382537
            -1568620288 1610614912 -1610043344 -1499741501</internalNodes>
          <leafValues>
            -5.4058378934860229e-01 5.2957880496978760e-01</leafValues></_>
        <_>
          <internalNodes>
            0 -1 91 1876688862 -4264193 -133 -558145801 1862135728
            777912318 -1073750549 -2020775266</internalNodes>
          <leafValues>
            -4.2967030405998230e-01 6.7730200290679932e-01</leafValues></_></weakClassifiers></_>
    <!-- stage 8 -->
    <_>
      <maxWeakCount>8</maxWeakCount>
      <stageThreshold>-1.1283134222030640e+00</stageThreshold>
      <weakClassifiers>
        <_>
          <internalNodes>
            0 -1 40 -4724881 -271352386 1878917022 -545915914 -805384258
            2147450319 -10618882 -204734469</internalNodes>
          <leafValues>
            -5.2086555957794189e-01 6.5048545598983765e-01</leafValues></_>
        <_>
          <internalNodes>
            0 -1 65 -1026660043 -935084016 1359021334 1652750360
            1091160114 -1952927744 -263486911 1820581929</internalNodes>
          <leafValues>
            -6.7957609891891479e-01 3.0182352662086487e-01</leafValues></_>
        <_>
          <internalNodes>
            0 -1 11 -788283197 -2008805328 1090531606 -1978101156
            1083908 -1676967742 -2147477084 -752975187</internalNodes>
          <leafValues>
            -6.5431183576583862e-01 3.2161092758178711e-01</leafValues></_>
        <_>
          <internalNodes>
            0 -1 78 1347457876 -1659633664 287440928 -1542189052
            -2113306432 -2136866176 -2147483510 -1071415295</internalNodes>
          <leafValues>
            -4.6807241439819336e-01 4.9657493829727173e-01</leafValues></_>
        <_>
          <internalNodes>
            0 -1 15 -268456210 -553811969 -9 2013134846 -1074069806
            -8389264 -755614770 -1507360846</internalNodes>
          <leafValues>
            -4.2278027534484863e-01 5.9929966926574707e-01</leafValues></_>
        <_>
          <internalNodes>
            0 -1 2 14870683 370147586 134283283 -938409982 -2146924031
            673185952 -1878884351 -1782251511</internalNodes>
          <leafValues>
            -5.6567472219467163e-01 4.4204953312873840e-01</leafValues></_>
        <_>
          <internalNodes>
            0 -1 89 -938089448 -670718972 512 1553481731 -2130132862
            16908291 285741194 1671675914</internalNodes>
          <leafValues>
            -4.9589097499847412e-01 4.9768948554992676e-01</leafValues></_>
        <_>
          <internalNodes>
            0 -1 58 -13717645 2130706366 -114969 -352520197 2147400630
            -943751171 -402784265 -1593909297</internalNodes>
          <leafValues>
            -4.8161643743515015e-01 5.5753833055496216e-01</leafValues></_></weakClassifiers></_>
    <!-- stage 9 -->
    <_>
      <maxWeakCount>9</maxWeakCount>
      <stageThreshold>-5.6231468915939331e-01</stageThreshold>
      <weakClassifiers>
        <_>
          <internalNodes>
            0 -1 36 -1673473057 -116948966 285479325 -649260283 33555098
            -1333787448 151033739 -1253528437</internalNodes>
          <leafValues>
            -5.6006765365600586e-01 3.8364779949188232e-01</leafValues></_>
        <_>
          <internalNodes>
            0 -1 25 -48802714 -981229424 352534930 -1736439744 805339801
            964755467 8421714 1097451888</internalNodes>
          <leafValues>
            -6.2673509120941162e-01 2.8958189487457275e-01</leafValues></_>
        <_>
          <internalNodes>
            0 -1 47 -943687207 -1266417280 1610678282 -795394044
            553689600 680534018 -225689402 30024536</internalNodes>
          <leafValues>
            -6.7580783367156982e-01 2.7862492203712463e-01</leafValues></_>
        <_>
          <internalNodes>
            0 -1 98 1343685504 -1945824957 16844825 75538945 -1065115261
            37748738 1114128564 -494075584</internalNodes>
          <leafValues>
            -6.0270696878433228e-01 3.5314458608627319e-01</leafValues></_>
        <_>
          <internalNodes>
            0 -1 92 -721170280 -1013182335 33289 -1319895039 133326
            536903809 261915570 -1949466046</internalNodes>
          <leafValues>
            -4.5365393161773682e-01 4.9345043301582336e-01</leafValues></_>
        <_>
          <internalNodes>
            0 -1 45 268984692 616579175 33554563 244416648 -805304236
            -754744960 947931369 1139474468</internalNodes>
          <leafValues>
            -6.6808873414993286e-01 3.4742119908332825e-01</leafValues></_>
        <_>
          <internalNodes>
            0 -1 61 -1010579948 -795770750 -1879015407 -125751296
            1075871762 1216483328 1283997859 -874993599</internalNodes>
          <leafValues>
            -5.5212408304214478e-01 4.3415796756744385e-01</leafValues></_>
        <_>
          <internalNodes>
            0 -1 90 151033881 1208090693 83951877 -402583354 -1068858880
            142737409 -771751925 1926889656</internalNodes>
          <leafValues>
            -6.6476887464523315e-01 3.7100908160209656e-01</leafValues></_>
        <_>
          <internalNodes>
            0 -1 84 -712867648 -1323827199 -796847872 596443330
            1073906320 -1727856632 -1568519985 -939065326</internalNodes>
          <leafValues>
            -5.1834917068481445e-01 5.0036025047302246e-01</leafValues></_></weakClassifiers></_>
    <!-- stage 10 -->
    <_>
      <maxWeakCount>11</maxWeakCount>
      <stageThreshold>-5.8554512262344360e-01</stageThreshold>
      <weakClassifiers>
        <_>
          <internalNodes>
            0 -1 7 -1584359745 1347518740 826563093 2038698067
            -1601871443 -351762176 649518 -549877733</internalNodes>
          <leafValues>
            -5.8172231912612915e-01 3.3701658248901367e-01</leafValues></_>
        <_>
          <internalNodes>
            0 -1 1 -1379250688 -1069301286 268964497 1654800392
            -1020768087 -2012540910 -2012593627 65057064</internalNodes>
          <leafValues>
            -8.6519163846969604e-01 1.7788200080394745e-01</leafValues></_>
        <_>
          <internalNodes>
            0 -1 13 -1986735537 -1483595568 268960152 235884624 813058
            713054369 429476449 28598502</internalNodes>
          <leafValues>
            -8.0752754211425781e-01 1.9787482917308807e-01</leafValues></_>
        <_>
          <internalNodes>
            0 -1 46 1853652730 1794670303 -571539457 1609531134
            -161481741 -1207970180 -555221058 -1625824162</internalNodes>
          <leafValues>
            -3.7447622418403625e-01 5.7641893625259399e-01</leafValues></_>
        <_>
          <internalNodes>
            0 -1 27 -268579786 -134817796 1065353215 1457418230 -233693
            -1610874882 939458558 -857387737</internalNodes>
          <leafValues>
            -4.3907085061073303e-01 5.2630645036697388e-01</leafValues></_>
        <_>
          <internalNodes>
            0 -1 22 -2113781548 -1556019824 -2146430759 1443764816
            -1073739460 -669400950 -1979703294 560128455</internalNodes>
          <leafValues>
            -6.5300536155700684e-01 3.8743558526039124e-01</leafValues></_>
        <_>
          <internalNodes>
            0 -1 8 -792612019 -1891483440 -1425995658 -1862221821
            8422039 -938967031 -2013118437 -1954242015</internalNodes>
          <leafValues>
            -5.0747501850128174e-01 4.9908658862113953e-01</leafValues></_>
        <_>
          <internalNodes>
            0 -1 48 -1333566957 -1987444352 67506275 -2133131223
            -2013200282 -1574928224 8388914 -1773530416</internalNodes>
          <leafValues>
            -6.4401000738143921e-01 4.2169648408889771e-01</leafValues></_>
        <_>
          <internalNodes>
            0 -1 30 1093091339 -1840791527 1090585602 1498152964
            -1476310910 -1073733374 -981286296 358529609</internalNodes>
          <leafValues>
            -6.4434027671813965e-01 3.7261757254600525e-01</leafValues></_>
        <_>
          <internalNodes>
            0 -1 56 -1173405565 786586 16777259 -1996422900 101222529
            -939524095 134373433 -1370259061</internalNodes>
          <leafValues>
            -4.9434226751327515e-01 5.3742194175720215e-01</leafValues></_>
        <_>
          <internalNodes>
            0 -1 100 -1874534520 104859650 655661 1371603073 -2147483544
            648282112 -1869608422 -46106621</internalNodes>
          <leafValues>
            -5.5861610174179077e-01 5.0263988971710205e-01</leafValues></_></weakClassifiers></_>
    <!-- stage 11 -->
    <_>
      <maxWeakCount>10</maxWeakCount>
      <stageThreshold>-6.8564462661743164e-01</stageThreshold>
      <weakClassifiers>
        <_>
          <internalNodes>
            0 -1 38 2075918327 -109576195 -16826369 -548407330
            -151146753 -277119658 -134381605 -268964225</internalNodes>
          <leafValues>
            -5.0689125061035156e-01 6.2886595726013184e-01</leafValues></_>
        <_>
          <internalNodes>
            0 -1 19 -1006614235 1087374592 67148943 1478201480 671228937
            1711310861 -1945451868 -1361045278</internalNodes>
          <leafValues>
            -5.8285802602767944e-01 3.1914216279983521e-01</leafValues></_>
        <_>
          <internalNodes>
            0 -1 81 -485428684 -1198325758 16655 412615065 -2143272922
            -1693843270 -230604760 1365610664</internalNodes>
          <leafValues>
            -7.1437615156173706e-01 2.7493575215339661e-01</leafValues></_>
        <_>
          <internalNodes>
            0 -1 53 1343005405 1494761812 -2146395462 277385476
            -1610284663 1392509068 201525269 -1970206167</internalNodes>
          <leafValues>
            -5.2571487426757812e-01 4.1590493917465210e-01</leafValues></_>
        <_>
          <internalNodes>
            0 -1 94 -796637526 -925838710 134439299 -1061613077
            -1576819678 1476403202 -2012904790 1542815849</internalNodes>
          <leafValues>
            -5.5596703290939331e-01 3.7286248803138733e-01</leafValues></_>
        <_>
          <internalNodes>
            0 -1 54 -1941908201 -1857027968 82065 118751234 -1996226478
            -1878982655 -1577039838 -1713851993</internalNodes>
          <leafValues>
            -5.1917618513107300e-01 4.3879643082618713e-01</leafValues></_>
        <_>
          <internalNodes>
            0 -1 42 -1098254 1006407660 1056899071 1879048174 -49422
            1879048191 671023094 -2090650187</internalNodes>
          <leafValues>
            -4.7459003329277039e-01 5.3207296133041382e-01</leafValues></_>
        <_>
          <internalNodes>
            0 -1 50 813945617 -1861090939 -2080111613 1497628679
            -771477493 671612929 43024395 -1592268375</internalNodes>
          <leafValues>
            -4.7696557641029358e-01 5.5569797754287720e-01</leafValues></_>
        <_>
          <internalNodes>
            0 -1 97 -84984260 -200705 -1073741889 -272896001 -1347660
            -1073742849 -2438 -1367777436</internalNodes>
          <leafValues>
            -4.5815864205360413e-01 5.3367984294891357e-01</leafValues></_>
        <_>
          <internalNodes>
            0 -1 73 -489646933 1376846290 285311392 1376190464 33038
            160039050 -2004317870 1292273872</internalNodes>
          <leafValues>
            -6.6537183523178101e-01 3.7064862251281738e-01</leafValues></_></weakClassifiers></_></stages>
  <features>
    <_>
      <rect>
        0 1 1 1</rect></_>
    <_>
      <rect>
        0 4 3 5</rect></_>
    <_>
      <rect>
        0 5 1 1</rect></_>
    <_>
      <rect>
        0 9 1 1</rect></_>
    <_>
      <rect>
        0 10 1 1</rect></_>
    <_>
      <rect>
        0 10 2 1</rect></_>
    <_>
      <rect>
        0 12 1 1</rect></_>
    <_>
      <rect>
        0 14 2 1</rect></_>
    <_>
      <rect>
        1 0 1 1</rect></_>
    <_>
      <rect>
        1 1 1 1</rect></_>
    <_>
      <rect>
        1 1 6 5</rect></_>
    <_>
      <rect>
        1 4 3 1</rect></_>
    <_>
      <rect>
        1 4 4 5</rect></_>
    <_>
      <rect>
        1 5 5 3</rect></_>
    <_>
      <rect>
        1 6 1 1</rect></_>
    <_>
      <rect>
        1 7 1 1</rect></_>
    <_>
      <rect>
        1 8 1 1</rect></_>
    <_>
      <rect>
        1 8 3 2</rect></_>
    <_>
      <rect>
        1 14 1 1</rect></_>
    <_>
      <rect>
        1 16 2 1</rect></_>
    <_>
      <rect>
        2 0 1 1</rect></_>
    <_>
      <rect>
        2 0 1 2</rect></_>
    <_>
      <rect>
        2 2 3 2</rect></_>
    <_>
      <rect>
        2 8 2 2</rect></_>
    <_>
      <rect>
        2 14 1 1</rect></_>
    <_>
      <rect>
        3 0 3 3</rect></_>
    <_>
      <rect>
        3 13 2 2</rect></_>
    <_>
      <rect>
        3 15 1 1</rect></_>
    <_>
      <rect>
        3 17 2 1</rect></_>
    <_>
      <rect>
        4 0 1 1</rect></_>
    <_>
      <rect>
        4 0 5 6</rect></_>
    <_>
      <rect>
        4 9 1 2</rect></_>
    <_>
      <rect>
        4 12 2 1</rect></_>
    <_>
      <rect>
        4 13 1 1</rect></_>
    <_>
      <rect>
        4 14 1 1</rect></_>
    <_>
      <rect>
        5 1 1 1</rect></_>
    <_>
      <rect>
        5 7 2 1</rect></_>
    <_>
      <rect>
        5 13 5 2</rect></_>
    <_>
      <rect>
        6 0 1 1</rect></_>
    <_>
      <rect>
        6 2 2 1</rect></_>
    <_>
      <rect>
        7 1 1 1</rect></_>
    <_>
      <rect>
        7 2 4 4</rect></_>
    <_>
      <rect>
        7 3 3 4</rect></_>
    <_>
      <rect>
        7 4 1 1</rect></_>
    <_>
      <rect>
        7 4 2 1</rect></_>
    <_>
      <rect>
        7 5 2 1</rect></_>
    <_>
      <rect>
        7 7 1 1</rect></_>
    <_>
      <rect>
        7 9 2 3</rect></_>
    <_>
      <rect>
        7 11 2 1</rect></_>
    <_>
      <rect>
        7 12 1 1</rect></_>
    <_>
      <rect>
        7 17 1 1</rect></_>
    <_>
      <rect>
        8 0 4 1</rect></_>
    <_>
      <rect>
        8 1 1 1</rect></_>
    <_>
      <rect>
        8 3 1 1</rect></_>
    <_>
      <rect>
        8 3 4 5</rect></_>
    <_>
      <rect>
        8 8 1 2</rect></_>
    <_>
      <rect>
        8 9 1 1</rect></_>
    <_>
      <rect>
        8 14 1 1</rect></_>
    <_>
      <rect>
        8 17 1 1</rect></_>
    <_>
      <rect>
        9 0 1 1</rect></_>
    <_>
      <rect>
        9 0 3 4</rect></_>
    <_>
      <rect>
        9 2 1 1</rect></_>
    <_>
      <rect>
        9 10 1 1</rect></_>
    <_>
      <rect>
        9 10 1 3</rect></_>
    <_>
      <rect>
        10 5 1 1</rect></_>
    <_>
      <rect>
        10 12 3 2</rect></_>
    <_>
      <rect>
        10 15 1 1</rect></_>
    <_>
      <rect>
        10 17 1 1</rect></_>
    <_>
      <rect>
        11 0 3 2</rect></_>
    <_>
      <rect>
        11 2 1 1</rect></_>
    <_>
      <rect>
        11 2 3 6</rect></_>
    <_>
      <rect>
        11 4 1 1</rect></_>
    <_>
      <rect>
        11 6 1 1</rect></_>
    <_>
      <rect>
        11 9 2 1</rect></_>
    <_>
      <rect>
        11 16 1 1</rect></_>
    <_>
      <rect>
        12 9 1 1</rect></_>
    <_>
      <rect>
        13 1 2 2</rect></_>
    <_>
      <rect>
        13 7 1 1</rect></_>
    <_>
      <rect>
        13 7 2 1</rect></_>
    <_>
      <rect>
        13 11 2 2</rect></_>
    <_>
      <rect>
        13 14 1 1</rect></_>
    <_>
      <rect>
        14 0 1 1</rect></_>
    <_>
      <rect>
        14 3 2 5</rect></_>
    <_>
      <rect>
        14 4 1 1</rect></_>
    <_>
      <rect>
        14 6 1 1</rect></_>
    <_>
      <rect>
        14 6 2 2</rect></_>
    <_>
      <rect>
        14 10 1 1</rect></_>
    <_>
      <rect>
        14 11 1 1</rect></_>
    <_>
      <rect>
        14 12 1 1</rect></_>
    <_>
      <rect>
        14 15 1 1</rect></_>
    <_>
      <rect>
        14 15 2 1</rect></_>
    <_>
      <rect>
        15 6 1 1</rect></_>
    <_>
      <rect>
        15 11 1 1</rect></_>
    <_>
      <rect>
        15 13 1 1</rect></_>
    <_>
      <rect>
        15 15 1 1</rect></_>
    <_>
      <rect>
        16 3 1 1</rect></_>
    <_>
      <rect>
        16 6 1 1</rect></_>
    <_>
      <rect>
        16 10 1 1</rect></_>
    <_>
      <rect>
        16 12 1 2</rect></_>
    <_>
      <rect>
        16 16 1 1</rect></_>
    <_>
      <rect>
        17 15 1 1</rect></_></features></cascade>
</opencv_storage>
