<?xml version="1.0"?>
<opencv_storage>
<stage1>
  <maxWeakCount>8</maxWeakCount>
  <stageThreshold>-9.3394732475280762e-01</stageThreshold>
  <weakClassifiers>
    <_>
      <internalNodes>
        0 -1 3654 -241905644 -1291353767 4227649 939663633 -2129133046
        -1985937374 -1920786257 -110911432</internalNodes>
      <leafValues>
        -6.8032789230346680e-01 2.3664122819900513e-01</leafValues></_>
    <_>
      <internalNodes>
        0 -1 1729 -1866431496 412684289 814326031 1846022546 -2113388452
        -1199569504 -1841090388 -1498265440</internalNodes>
      <leafValues>
        -6.4712524414062500e-01 3.7504255771636963e-01</leafValues></_>
    <_>
      <internalNodes>
        0 -1 2053 -1056908866 419463256 -939486947 -1567207414
        -2139052024 461375745 337960 1376370856</internalNodes>
      <leafValues>
        -6.8186378479003906e-01 3.7476792931556702e-01</leafValues></_>
    <_>
      <internalNodes>
        0 -1 2850 -233650403 -577765102 134217733 -2058288890 33589792
        -1577058175 184650280 -1904196600</internalNodes>
      <leafValues>
        -6.1678850650787354e-01 4.5102620124816895e-01</leafValues></_>
    <_>
      <internalNodes>
        0 -1 3876 -787429616 -1840185325 169353 -2062346863 -1475705760
        -2013150712 -1467873205 -1985343176</internalNodes>
      <leafValues>
        -5.8467936515808105e-01 5.2300208806991577e-01</leafValues></_>
    <_>
      <internalNodes>
        0 -1 1417 -1857785136 -520089518 -2130702023 620757064
        -2097004384 469958720 139422 -1883110768</internalNodes>
      <leafValues>
        -6.6452115774154663e-01 4.4921231269836426e-01</leafValues></_>
    <_>
      <internalNodes>
        0 -1 633 -998141741 -1761308607 134217749 440492164 537434113
        671092744 8685833 -827391974</internalNodes>
      <leafValues>
        -5.8228671550750732e-01 5.5913686752319336e-01</leafValues></_>
    <_>
      <internalNodes>
        0 -1 2979 271583078 50598147 362927 -1866297080 -2013167127
        17039489 42473997 -2084079464</internalNodes>
      <leafValues>
        -6.3150370121002197e-01 5.4338753223419189e-01</leafValues></_></weakClassifiers></stage1>
</opencv_storage>
