<?xml version="1.0"?>
<opencv_storage>
<stage10>
  <maxWeakCount>11</maxWeakCount>
  <stageThreshold>-5.8554512262344360e-01</stageThreshold>
  <weakClassifiers>
    <_>
      <internalNodes>
        0 -1 350 -1584359745 1347518740 826563093 2038698067 -1601871443
        -351762176 649518 -549877733</internalNodes>
      <leafValues>
        -5.8172231912612915e-01 3.3701658248901367e-01</leafValues></_>
    <_>
      <internalNodes>
        0 -1 152 -1379250688 -1069301286 268964497 1654800392
        -1020768087 -2012540910 -2012593627 65057064</internalNodes>
      <leafValues>
        -8.6519163846969604e-01 1.7788200080394745e-01</leafValues></_>
    <_>
      <internalNodes>
        0 -1 568 -1986735537 -1483595568 268960152 235884624 813058
        713054369 429476449 28598502</internalNodes>
      <leafValues>
        -8.0752754211425781e-01 1.9787482917308807e-01</leafValues></_>
    <_>
      <internalNodes>
        0 -1 2479 1853652730 1794670303 -571539457 1609531134 -161481741
        -1207970180 -555221058 -1625824162</internalNodes>
      <leafValues>
        -3.7447622418403625e-01 5.7641893625259399e-01</leafValues></_>
    <_>
      <internalNodes>
        0 -1 1434 -268579786 -134817796 1065353215 1457418230 -233693
        -1610874882 939458558 -857387737</internalNodes>
      <leafValues>
        -4.3907085061073303e-01 5.2630645036697388e-01</leafValues></_>
    <_>
      <internalNodes>
        0 -1 841 -2113781548 -1556019824 -2146430759 1443764816
        -1073739460 -669400950 -1979703294 560128455</internalNodes>
      <leafValues>
        -6.5300536155700684e-01 3.8743558526039124e-01</leafValues></_>
    <_>
      <internalNodes>
        0 -1 378 -792612019 -1891483440 -1425995658 -1862221821 8422039
        -938967031 -2013118437 -1954242015</internalNodes>
      <leafValues>
        -5.0747501850128174e-01 4.9908658862113953e-01</leafValues></_>
    <_>
      <internalNodes>
        0 -1 2538 -1333566957 -1987444352 67506275 -2133131223
        -2013200282 -1574928224 8388914 -1773530416</internalNodes>
      <leafValues>
        -6.4401000738143921e-01 4.2169648408889771e-01</leafValues></_>
    <_>
      <internalNodes>
        0 -1 1478 1093091339 -1840791527 1090585602 1498152964
        -1476310910 -1073733374 -981286296 358529609</internalNodes>
      <leafValues>
        -6.4434027671813965e-01 3.7261757254600525e-01</leafValues></_>
    <_>
      <internalNodes>
        0 -1 2763 -1173405565 786586 16777259 -1996422900 101222529
        -939524095 134373433 -1370259061</internalNodes>
      <leafValues>
        -4.9434226751327515e-01 5.3742194175720215e-01</leafValues></_>
    <_>
      <internalNodes>
        0 -1 3966 -1874534520 104859650 655661 1371603073 -2147483544
        648282112 -1869608422 -46106621</internalNodes>
      <leafValues>
        -5.5861610174179077e-01 5.0263988971710205e-01</leafValues></_></weakClassifiers></stage10>
</opencv_storage>
