<?xml version="1.0"?>
<opencv_storage>
<stage8>
  <maxWeakCount>8</maxWeakCount>
  <stageThreshold>-1.1283134222030640e+00</stageThreshold>
  <weakClassifiers>
    <_>
      <internalNodes>
        0 -1 2355 -4724881 -271352386 1878917022 -545915914 -805384258
        2147450319 -10618882 -204734469</internalNodes>
      <leafValues>
        -5.2086555957794189e-01 6.5048545598983765e-01</leafValues></_>
    <_>
      <internalNodes>
        0 -1 3191 -1026660043 -935084016 1359021334 1652750360
        1091160114 -1952927744 -263486911 1820581929</internalNodes>
      <leafValues>
        -6.7957609891891479e-01 3.0182352662086487e-01</leafValues></_>
    <_>
      <internalNodes>
        0 -1 526 -788283197 -2008805328 1090531606 -1978101156 1083908
        -1676967742 -2147477084 -752975187</internalNodes>
      <leafValues>
        -6.5431183576583862e-01 3.2161092758178711e-01</leafValues></_>
    <_>
      <internalNodes>
        0 -1 3606 1347457876 -1659633664 287440928 -1542189052
        -2113306432 -2136866176 -2147483510 -1071415295</internalNodes>
      <leafValues>
        -4.6807241439819336e-01 4.9657493829727173e-01</leafValues></_>
    <_>
      <internalNodes>
        0 -1 600 -268456210 -553811969 -9 2013134846 -1074069806
        -8389264 -755614770 -1507360846</internalNodes>
      <leafValues>
        -4.2278027534484863e-01 5.9929966926574707e-01</leafValues></_>
    <_>
      <internalNodes>
        0 -1 168 14870683 370147586 134283283 -938409982 -2146924031
        673185952 -1878884351 -1782251511</internalNodes>
      <leafValues>
        -5.6567472219467163e-01 4.4204953312873840e-01</leafValues></_>
    <_>
      <internalNodes>
        0 -1 3774 -938089448 -670718972 512 1553481731 -2130132862
        16908291 285741194 1671675914</internalNodes>
      <leafValues>
        -4.9589097499847412e-01 4.9768948554992676e-01</leafValues></_>
    <_>
      <internalNodes>
        0 -1 2831 -13717645 2130706366 -114969 -352520197 2147400630
        -943751171 -402784265 -1593909297</internalNodes>
      <leafValues>
        -4.8161643743515015e-01 5.5753833055496216e-01</leafValues></_></weakClassifiers></stage8>
</opencv_storage>
