<?xml version="1.0"?>
<opencv_storage>
<stage2>
  <maxWeakCount>8</maxWeakCount>
  <stageThreshold>-8.4812641143798828e-01</stageThreshold>
  <weakClassifiers>
    <_>
      <internalNodes>
        0 -1 2748 -134210435 1980006599 -2063498307 1603371106 805830811
        -134085375 -237402455 -1410719469</internalNodes>
      <leafValues>
        -6.6799998283386230e-01 2.5600001215934753e-01</leafValues></_>
    <_>
      <internalNodes>
        0 -1 3547 -1018732195 -2013215471 343953435 -1371384165
        -1810185679 -360562398 713171744 -825859296</internalNodes>
      <leafValues>
        -7.2297072410583496e-01 3.2922652363777161e-01</leafValues></_>
    <_>
      <internalNodes>
        0 -1 3898 -666446543 -1221067689 -1857944749 -434349676
        -2004416451 -382631791 1376583698 -275888815</internalNodes>
      <leafValues>
        -5.5175006389617920e-01 4.8137301206588745e-01</leafValues></_>
    <_>
      <internalNodes>
        0 -1 3282 -29475469 -483459098 -1209024578 -268435614 2130574684
        -134217793 -805560596 -1360265231</internalNodes>
      <leafValues>
        -4.4183647632598877e-01 6.2004435062408447e-01</leafValues></_>
    <_>
      <internalNodes>
        0 -1 288 -1877880731 -2013188077 16778073 1611792645 -2113925047
        -259913715 680023648 -1112399825</internalNodes>
      <leafValues>
        -5.9356653690338135e-01 5.1519328355789185e-01</leafValues></_>
    <_>
      <internalNodes>
        0 -1 576 -1073724712 -636141535 -2147381031 2034257921 151126184
        -81526248 -400522979 -1373093859</internalNodes>
      <leafValues>
        -5.4721421003341675e-01 5.2665740251541138e-01</leafValues></_>
    <_>
      <internalNodes>
        0 -1 2981 -2063576779 -738129920 37769409 1984992271 -2145770334
        -1450078815 4726921 -1193271088</internalNodes>
      <leafValues>
        -8.0367612838745117e-01 3.6672297120094299e-01</leafValues></_>
    <_>
      <internalNodes>
        0 -1 3312 -766344080 -1844440796 1359024538 -1946087424
        -2122079808 1636827776 1476397200 784001073</internalNodes>
      <leafValues>
        -6.8639421463012695e-01 4.4280964136123657e-01</leafValues></_></weakClassifiers></stage2>
</opencv_storage>
