<?xml version="1.0"?>
<opencv_storage>
<stage3>
  <maxWeakCount>7</maxWeakCount>
  <stageThreshold>-4.3183782696723938e-01</stageThreshold>
  <weakClassifiers>
    <_>
      <internalNodes>
        0 -1 448 -549333793 -31943806 268699969 -612334528 -804158838
        -364740590 -897480124 -870839614</internalNodes>
      <leafValues>
        -6.9135802984237671e-01 2.5000000000000000e-01</leafValues></_>
    <_>
      <internalNodes>
        0 -1 3699 -799057574 152420431 16469 -1004740352 -1056894174
        75571328 -2124007423 -1205285236</internalNodes>
      <leafValues>
        -7.0883029699325562e-01 2.9743480682373047e-01</leafValues></_>
    <_>
      <internalNodes>
        0 -1 2835 1938011461 -547535606 -788512736 -110984943 1073857770
        -2121670639 -1395883986 -1593554936</internalNodes>
      <leafValues>
        -5.4064685106277466e-01 4.6892493963241577e-01</leafValues></_>
    <_>
      <internalNodes>
        0 -1 3204 -46203077 1962921468 1073741183 -1082200473 -163994
        -562905223 1610608380 -252469266</internalNodes>
      <leafValues>
        -4.1088804602622986e-01 6.8556922674179077e-01</leafValues></_>
    <_>
      <internalNodes>
        0 -1 3226 -201079290 -2143010557 285212954 51413128 -192903661
        -125271936 100432 1153884450</internalNodes>
      <leafValues>
        -7.9419636726379395e-01 4.0801405906677246e-01</leafValues></_>
    <_>
      <internalNodes>
        0 -1 3750 1446238213 -1040166108 -1056698363 -1467543535
        723296281 856164355 -1744828271 828926499</internalNodes>
      <leafValues>
        -7.2695547342300415e-01 3.8062131404876709e-01</leafValues></_>
    <_>
      <internalNodes>
        0 -1 414 1931794667 -2111733552 1476464902 -469729278 25804841
        1375864208 1095141536 -1180671966</internalNodes>
      <leafValues>
        -6.2373447418212891e-01 4.6444433927536011e-01</leafValues></_></weakClassifiers></stage3>
</opencv_storage>
