<?xml version="1.0"?>
<opencv_storage>
<stage11>
  <maxWeakCount>10</maxWeakCount>
  <stageThreshold>-6.8564462661743164e-01</stageThreshold>
  <weakClassifiers>
    <_>
      <internalNodes>
        0 -1 2079 2075918327 -109576195 -16826369 -548407330 -151146753
        -277119658 -134381605 -268964225</internalNodes>
      <leafValues>
        -5.0689125061035156e-01 6.2886595726013184e-01</leafValues></_>
    <_>
      <internalNodes>
        0 -1 745 -1006614235 1087374592 67148943 1478201480 671228937
        1711310861 -1945451868 -1361045278</internalNodes>
      <leafValues>
        -5.8285802602767944e-01 3.1914216279983521e-01</leafValues></_>
    <_>
      <internalNodes>
        0 -1 3654 -485428684 -1198325758 16655 412615065 -2143272922
        -1693843270 -230604760 1365610664</internalNodes>
      <leafValues>
        -7.1437615156173706e-01 2.7493575215339661e-01</leafValues></_>
    <_>
      <internalNodes>
        0 -1 2655 1343005405 1494761812 -2146395462 277385476
        -1610284663 1392509068 201525269 -1970206167</internalNodes>
      <leafValues>
        -5.2571487426757812e-01 4.1590493917465210e-01</leafValues></_>
    <_>
      <internalNodes>
        0 -1 3840 -796637526 -925838710 134439299 -1061613077
        -1576819678 1476403202 -2012904790 1542815849</internalNodes>
      <leafValues>
        -5.5596703290939331e-01 3.7286248803138733e-01</leafValues></_>
    <_>
      <internalNodes>
        0 -1 2674 -1941908201 -1857027968 82065 118751234 -1996226478
        -1878982655 -1577039838 -1713851993</internalNodes>
      <leafValues>
        -5.1917618513107300e-01 4.3879643082618713e-01</leafValues></_>
    <_>
      <internalNodes>
        0 -1 2416 -1098254 1006407660 1056899071 1879048174 -49422
        1879048191 671023094 -2090650187</internalNodes>
      <leafValues>
        -4.7459003329277039e-01 5.3207296133041382e-01</leafValues></_>
    <_>
      <internalNodes>
        0 -1 2579 813945617 -1861090939 -2080111613 1497628679
        -771477493 671612929 43024395 -1592268375</internalNodes>
      <leafValues>
        -4.7696557641029358e-01 5.5569797754287720e-01</leafValues></_>
    <_>
      <internalNodes>
        0 -1 3891 -84984260 -200705 -1073741889 -272896001 -1347660
        -1073742849 -2438 -1367777436</internalNodes>
      <leafValues>
        -4.5815864205360413e-01 5.3367984294891357e-01</leafValues></_>
    <_>
      <internalNodes>
        0 -1 3351 -489646933 1376846290 285311392 1376190464 33038
        160039050 -2004317870 1292273872</internalNodes>
      <leafValues>
        -6.6537183523178101e-01 3.7064862251281738e-01</leafValues></_></weakClassifiers></stage11>
</opencv_storage>
