<?xml version="1.0"?>
<opencv_storage>
<stage1>
  <maxWeakCount>9</maxWeakCount>
  <stageThreshold>-7.0116382837295532e-01</stageThreshold>
  <weakClassifiers>
    <_>
      <internalNodes>
        0 -1 2547 -787427308 1344537104 402754645 -686276607 -1073217441
        1879736320 -928513796 -659849078</internalNodes>
      <leafValues>
        -5.7066190242767334e-01 4.1078838706016541e-01</leafValues></_>
    <_>
      <internalNodes>
        0 -1 2363 -775503096 1360134165 -1878816757 352321836
        -2138806144 822280194 715145740 -2134220088</internalNodes>
      <leafValues>
        -6.0876530408859253e-01 3.7939068675041199e-01</leafValues></_>
    <_>
      <internalNodes>
        0 -1 1097 -2063478668 -955219856 134238284 272666709 -528437232
        1805778948 -1987532739 1251696673</internalNodes>
      <leafValues>
        -5.8516103029251099e-01 4.3721875548362732e-01</leafValues></_>
    <_>
      <internalNodes>
        0 -1 378 -1847426796 -134037048 -1063780341 335548546 1476567089
        65536 -1073042774 -1756886907</internalNodes>
      <leafValues>
        -5.7790404558181763e-01 4.4570031762123108e-01</leafValues></_>
    <_>
      <internalNodes>
        0 -1 2034 -831521191 -562102274 -182274 -17109124 -1887437320
        1879048172 -310511668 -1424351248</internalNodes>
      <leafValues>
        -4.7934183478355408e-01 6.0724455118179321e-01</leafValues></_>
    <_>
      <internalNodes>
        0 -1 3219 -50532608 -16777218 -1057025 -546504707 -131208
        2004320253 -143270128 -347410508</internalNodes>
      <leafValues>
        -5.1354724168777466e-01 5.8984696865081787e-01</leafValues></_>
    <_>
      <internalNodes>
        0 -1 954 -688075084 2126370815 -671088769 -1753333893 -159514792
        1870453743 -8459336 -359897785</internalNodes>
      <leafValues>
        -4.7126123309135437e-01 6.2625360488891602e-01</leafValues></_>
    <_>
      <internalNodes>
        0 -1 3901 -16999116 2139095038 -16875786 -26611716 -139458
        -8388869 -35818438 -1234444428</internalNodes>
      <leafValues>
        -4.6357768774032593e-01 6.2587249279022217e-01</leafValues></_>
    <_>
      <internalNodes>
        0 -1 2747 -75875320 1862205054 -16777217 -912343105 -545341449
        -411041797 930444988 -1534378507</internalNodes>
      <leafValues>
        -5.0951594114303589e-01 6.1403435468673706e-01</leafValues></_></weakClassifiers></stage1>
</opencv_storage>
