<?xml version="1.0"?>
<opencv_storage>
<stage6>
  <maxWeakCount>10</maxWeakCount>
  <stageThreshold>-9.5068490505218506e-01</stageThreshold>
  <weakClassifiers>
    <_>
      <internalNodes>
        0 -1 3894 -213732075 408162585 50464796 1099633031 -133758726
        -645429248 -391747475 -122873308</internalNodes>
      <leafValues>
        -5.7539683580398560e-01 2.3648647964000702e-01</leafValues></_>
    <_>
      <internalNodes>
        0 -1 430 343284914 1981698385 1097759 1650455746 1511194707
        -1324810047 -1849064954 191891492</internalNodes>
      <leafValues>
        -8.2129389047622681e-01 2.0322705805301666e-01</leafValues></_>
    <_>
      <internalNodes>
        0 -1 662 -632953012 -1315945212 1342243068 306053336 144202576
        1829314624 -2020898701 1880148520</internalNodes>
      <leafValues>
        -7.8139024972915649e-01 2.1826733648777008e-01</leafValues></_>
    <_>
      <internalNodes>
        0 -1 1689 -1087440371 -806027266 2063597561 -310542871
        2078183277 -1484787777 -134325636 -690069697</internalNodes>
      <leafValues>
        -4.1406166553497314e-01 5.3135734796524048e-01</leafValues></_>
    <_>
      <internalNodes>
        0 -1 1129 294217813 -1946058223 -704552700 626659344 -930480033
        -1979142006 -1844958750 674548802</internalNodes>
      <leafValues>
        -5.8741664886474609e-01 3.9792641997337341e-01</leafValues></_>
    <_>
      <internalNodes>
        0 -1 2022 302094700 1287651713 -2143137516 -637444078
        -2071355375 147358082 -1994741724 385424922</internalNodes>
      <leafValues>
        -7.1182560920715332e-01 3.1325584650039673e-01</leafValues></_>
    <_>
      <internalNodes>
        0 -1 3510 1091179046 320258304 16789721 -1522387968 -2147335781
        -1899720156 -429520853 -1329471478</internalNodes>
      <leafValues>
        -5.3258401155471802e-01 4.9296930432319641e-01</leafValues></_>
    <_>
      <internalNodes>
        0 -1 2355 -286899921 -1090585155 1878917022 1610415094
        -805377114 2145369550 2135768942 -1333067781</internalNodes>
      <leafValues>
        -4.2343518137931824e-01 6.2123292684555054e-01</leafValues></_>
    <_>
      <internalNodes>
        0 -1 2004 -155297423 -687931524 -1359020099 -67178626
        -1073848508 930611199 -813859907 -451293834</internalNodes>
      <leafValues>
        -4.4732546806335449e-01 5.7107287645339966e-01</leafValues></_>
    <_>
      <internalNodes>
        0 -1 1477 17011974 -654146932 65613 1521851207 -1073707982
        -519534557 943817280 299399552</internalNodes>
      <leafValues>
        -7.7013790607452393e-01 3.6368015408515930e-01</leafValues></_></weakClassifiers></stage6>
</opencv_storage>
