<?xml version="1.0"?>
<opencv_storage>
<stage0>
  <maxWeakCount>9</maxWeakCount>
  <stageThreshold>-8.5254102945327759e-01</stageThreshold>
  <weakClassifiers>
    <_>
      <internalNodes>
        0 -1 324 -754941288 -1006108592 1073844307 -635895798 -738066356
        159957122 1250033867 -1164219957</internalNodes>
      <leafValues>
        -6.1338287591934204e-01 4.1984733939170837e-01</leafValues></_>
    <_>
      <internalNodes>
        0 -1 3700 -785350640 1105203350 537002130 2106597392 555950080
        -871890919 -1600126279 -1680265054</internalNodes>
      <leafValues>
        -5.1364612579345703e-01 5.5409419536590576e-01</leafValues></_>
    <_>
      <internalNodes>
        0 -1 2748 1388974672 1644220489 2057 272959422 -796718902
        847937538 -2104790360 -1410717439</internalNodes>
      <leafValues>
        -6.4443695545196533e-01 4.8686257004737854e-01</leafValues></_>
    <_>
      <internalNodes>
        0 -1 1854 1879331214 -260013818 348355 -1340604344 172459
        1485373444 -2129526412 -1240067803</internalNodes>
      <leafValues>
        -6.5375536680221558e-01 4.3453779816627502e-01</leafValues></_>
    <_>
      <internalNodes>
        0 -1 1129 -1878982639 -1051635440 30749 -1865383721 -184541175
        -897580125 143197095 -1405319166</internalNodes>
      <leafValues>
        -5.7742035388946533e-01 5.1554226875305176e-01</leafValues></_>
    <_>
      <internalNodes>
        0 -1 161 1677642316 989855742 -83898521 1946025725 -142643361
        -831094913 2139094895 691764447</internalNodes>
      <leafValues>
        -4.2877420783042908e-01 7.2696548700332642e-01</leafValues></_>
    <_>
      <internalNodes>
        0 -1 3918 -1072062166 -1069072368 16777473 -2053472039 536911908
        -1063124992 587803169 -1891569664</internalNodes>
      <leafValues>
        -6.5039587020874023e-01 5.1740127801895142e-01</leafValues></_>
    <_>
      <internalNodes>
        0 -1 2243 -151066924 -1342222658 -1344321025 301400063
        1610579258 2143254519 -4816904 -1090543631</internalNodes>
      <leafValues>
        -4.8487019538879395e-01 6.2372952699661255e-01</leafValues></_>
    <_>
      <internalNodes>
        0 -1 2006 1367887874 268435457 16777217 289415177 402686856
        8552448 -2147180403 -2120195480</internalNodes>
      <leafValues>
        -7.8076291084289551e-01 4.2213848233222961e-01</leafValues></_></weakClassifiers></stage0>
</opencv_storage>
