<?xml version="1.0"?>
<opencv_storage>
<stage7>
  <maxWeakCount>9</maxWeakCount>
  <stageThreshold>-4.8978462815284729e-01</stageThreshold>
  <weakClassifiers>
    <_>
      <internalNodes>
        0 -1 3770 -554827851 -50417922 2030567422 1069416181 -277920598
        2147483646 -18460162 -1140883977</internalNodes>
      <leafValues>
        -4.8976376652717590e-01 5.5151516199111938e-01</leafValues></_>
    <_>
      <internalNodes>
        0 -1 3813 1465041222 -938859630 -738147582 -662110202 1612185858
        -2079291390 -1820327901 -947566562</internalNodes>
      <leafValues>
        -5.2169424295425415e-01 3.5987627506256104e-01</leafValues></_>
    <_>
      <internalNodes>
        0 -1 3108 139297282 -1962770300 17047721 -1491693167 813832232
        960561203 -1163093824 -963157983</internalNodes>
      <leafValues>
        -5.6546592712402344e-01 3.7426805496215820e-01</leafValues></_>
    <_>
      <internalNodes>
        0 -1 187 -17940865 -4456518 1727856629 736820972 1073708883
        1853849469 -67469569 1341373951</internalNodes>
      <leafValues>
        -3.6473655700683594e-01 5.8150744438171387e-01</leafValues></_>
    <_>
      <internalNodes>
        0 -1 3618 2130537523 2080291838 -4210694 -539048227 -10323
        -311967745 2122226652 -633620636</internalNodes>
      <leafValues>
        -3.7916907668113708e-01 6.2207341194152832e-01</leafValues></_>
    <_>
      <internalNodes>
        0 -1 348 -340869454 -622104614 -134365185 -180654634 2125856134
        -1074069505 -1080049794 -134916225</internalNodes>
      <leafValues>
        -3.5932323336601257e-01 6.8846738338470459e-01</leafValues></_>
    <_>
      <internalNodes>
        0 -1 3891 -222121412 -1988100095 -2130566783 -889028534
        1073750116 -1342144506 -1582800843 -1691843968</internalNodes>
      <leafValues>
        -5.5625647306442261e-01 4.3911981582641602e-01</leafValues></_>
    <_>
      <internalNodes>
        0 -1 3728 -2654352 -84089090 2147401662 -672206915 1337970667
        74383231 2128871393 -985153569</internalNodes>
      <leafValues>
        -4.0298712253570557e-01 5.7995969057083130e-01</leafValues></_>
    <_>
      <internalNodes>
        0 -1 725 -712865891 -796835712 150994956 -1575481080 -2147438005
        1143062816 143362457 822741987</internalNodes>
      <leafValues>
        -5.8853465318679810e-01 3.8206326961517334e-01</leafValues></_></weakClassifiers></stage7>
</opencv_storage>
