<?xml version="1.0"?>
<opencv_storage>
<stage9>
  <maxWeakCount>9</maxWeakCount>
  <stageThreshold>-5.6231468915939331e-01</stageThreshold>
  <weakClassifiers>
    <_>
      <internalNodes>
        0 -1 1953 -1673473057 -116948966 285479325 -649260283 33555098
        -1333787448 151033739 -1253528437</internalNodes>
      <leafValues>
        -5.6006765365600586e-01 3.8364779949188232e-01</leafValues></_>
    <_>
      <internalNodes>
        0 -1 1148 -48802714 -981229424 352534930 -1736439744 805339801
        964755467 8421714 1097451888</internalNodes>
      <leafValues>
        -6.2673509120941162e-01 2.8958189487457275e-01</leafValues></_>
    <_>
      <internalNodes>
        0 -1 2516 -943687207 -1266417280 1610678282 -795394044 553689600
        680534018 -225689402 30024536</internalNodes>
      <leafValues>
        -6.7580783367156982e-01 2.7862492203712463e-01</leafValues></_>
    <_>
      <internalNodes>
        0 -1 3898 1343685504 -1945824957 16844825 75538945 -1065115261
        37748738 1114128564 -494075584</internalNodes>
      <leafValues>
        -6.0270696878433228e-01 3.5314458608627319e-01</leafValues></_>
    <_>
      <internalNodes>
        0 -1 3831 -721170280 -1013182335 33289 -1319895039 133326
        536903809 261915570 -1949466046</internalNodes>
      <leafValues>
        -4.5365393161773682e-01 4.9345043301582336e-01</leafValues></_>
    <_>
      <internalNodes>
        0 -1 2448 268984692 616579175 33554563 244416648 -805304236
        -754744960 947931369 1139474468</internalNodes>
      <leafValues>
        -6.6808873414993286e-01 3.4742119908332825e-01</leafValues></_>
    <_>
      <internalNodes>
        0 -1 2871 -1010579948 -795770750 -1879015407 -125751296
        1075871762 1216483328 1283997859 -874993599</internalNodes>
      <leafValues>
        -5.5212408304214478e-01 4.3415796756744385e-01</leafValues></_>
    <_>
      <internalNodes>
        0 -1 3775 151033881 1208090693 83951877 -402583354 -1068858880
        142737409 -771751925 1926889656</internalNodes>
      <leafValues>
        -6.6476887464523315e-01 3.7100908160209656e-01</leafValues></_>
    <_>
      <internalNodes>
        0 -1 3720 -712867648 -1323827199 -796847872 596443330 1073906320
        -1727856632 -1568519985 -939065326</internalNodes>
      <leafValues>
        -5.1834917068481445e-01 5.0036025047302246e-01</leafValues></_></weakClassifiers></stage9>
</opencv_storage>
