<?xml version="1.0"?>
<opencv_storage>
<stage6>
  <maxWeakCount>9</maxWeakCount>
  <stageThreshold>-6.8219381570816040e-01</stageThreshold>
  <weakClassifiers>
    <_>
      <internalNodes>
        0 -1 3634 -207652905 1383366671 -1879042989 1124270088
        1057063057 -1711095670 134781993 -54556123</internalNodes>
      <leafValues>
        -6.0600376129150391e-01 2.4423962831497192e-01</leafValues></_>
    <_>
      <internalNodes>
        0 -1 3725 -2025773053 134730262 -2146402021 -1438365676
        -503152570 332923027 732539141 204765716</internalNodes>
      <leafValues>
        -9.4415330886840820e-01 1.8639273941516876e-01</leafValues></_>
    <_>
      <internalNodes>
        0 -1 3904 1897640197 268435467 51462925 -1241243517 -335474451
        -392558462 -617860500 2121623040</internalNodes>
      <leafValues>
        -6.3583797216415405e-01 2.9427564144134521e-01</leafValues></_>
    <_>
      <internalNodes>
        0 -1 2607 -267295998 1094766725 16974030 -2097117183 1082147160
        10485900 -1598027767 -1389329870</internalNodes>
      <leafValues>
        -5.4693430662155151e-01 4.1781973838806152e-01</leafValues></_>
    <_>
      <internalNodes>
        0 -1 1721 1375768762 -124775936 1895864371 -589737705 164096
        589834 -1039514459 -1065146240</internalNodes>
      <leafValues>
        -5.9649139642715454e-01 4.0467730164527893e-01</leafValues></_>
    <_>
      <internalNodes>
        0 -1 2428 -303632721 780070398 -257 -1174438914 -293601348
        645922815 1862270845 -964864616</internalNodes>
      <leafValues>
        -4.6603503823280334e-01 5.3025692701339722e-01</leafValues></_>
    <_>
      <internalNodes>
        0 -1 624 -1022309742 -1542880871 913 -2044853625 -2012740697
        355565737 -1869610092 1731938563</internalNodes>
      <leafValues>
        -5.9307497739791870e-01 4.1986015439033508e-01</leafValues></_>
    <_>
      <internalNodes>
        0 -1 3396 -1049295396 58884163 -2046754535 -1676017661
        1073807370 1140883721 -125827057 -371700702</internalNodes>
      <leafValues>
        -5.7645785808563232e-01 4.3188601732254028e-01</leafValues></_>
    <_>
      <internalNodes>
        0 -1 757 -2109030053 -2129624831 153 545882115 4423822 402653192
        1241514688 291406005</internalNodes>
      <leafValues>
        -6.7197573184967041e-01 3.9809894561767578e-01</leafValues></_></weakClassifiers></stage6>
</opencv_storage>
