<?xml version="1.0"?>
<opencv_storage>
<stage1>
  <maxWeakCount>10</maxWeakCount>
  <stageThreshold>-6.4948999881744385e-01</stageThreshold>
  <weakClassifiers>
    <_>
      <internalNodes>
        0 -1 1211812 -1.3386401534080505e-01</internalNodes>
      <leafValues>
        6.0606062412261963e-01 -5.3278690576553345e-01</leafValues></_>
    <_>
      <internalNodes>
        0 -1 2004298 -3.8131664041429758e-05</internalNodes>
      <leafValues>
        5.2652508020401001e-01 -4.3779590725898743e-01</leafValues></_>
    <_>
      <internalNodes>
        0 -1 2231550 6.4449245110154152e-04</internalNodes>
      <leafValues>
        -4.3731549382209778e-01 5.7694208621978760e-01</leafValues></_>
    <_>
      <internalNodes>
        0 -1 10061 -4.5006545260548592e-03</internalNodes>
      <leafValues>
        6.1993062496185303e-01 -3.4722304344177246e-01</leafValues></_>
    <_>
      <internalNodes>
        0 -1 2323484 -1.8179099424742162e-04</internalNodes>
      <leafValues>
        5.4293036460876465e-01 -3.7863713502883911e-01</leafValues></_>
    <_>
      <internalNodes>
        0 -1 573242 -1.7388560809195042e-03</internalNodes>
      <leafValues>
        7.4484550952911377e-01 -2.4815922975540161e-01</leafValues></_>
    <_>
      <internalNodes>
        0 -1 2070969 -1.0466394087416120e-05</internalNodes>
      <leafValues>
        5.2962332963943481e-01 -3.5783568024635315e-01</leafValues></_>
    <_>
      <internalNodes>
        0 -1 2875910 8.1338861491531134e-04</internalNodes>
      <leafValues>
        2.7103102207183838e-01 -8.7782108783721924e-01</leafValues></_>
    <_>
      <internalNodes>
        0 -1 2706385 -5.1436452195048332e-03</internalNodes>
      <leafValues>
        4.8715549707412720e-01 -4.4242236018180847e-01</leafValues></_>
    <_>
      <internalNodes>
        0 -1 2973384 -6.3810136634856462e-04</internalNodes>
      <leafValues>
        -5.5664432048797607e-01 4.1497376561164856e-01</leafValues></_></weakClassifiers></stage1>
</opencv_storage>
