<?xml version="1.0"?>
<opencv_storage>
<stage5>
  <maxWeakCount>10</maxWeakCount>
  <stageThreshold>-5.9140038490295410e-01</stageThreshold>
  <weakClassifiers>
    <_>
      <internalNodes>
        0 -1 626182 8.0095510929822922e-03</internalNodes>
      <leafValues>
        -5.5660378932952881e-01 2.8571429848670959e-01</leafValues></_>
    <_>
      <internalNodes>
        0 -1 10381 -1.5790697187185287e-02</internalNodes>
      <leafValues>
        6.0377728939056396e-01 -2.7533817291259766e-01</leafValues></_>
    <_>
      <internalNodes>
        0 -1 3020349 -5.4995465325191617e-04</internalNodes>
      <leafValues>
        -8.4575277566909790e-01 1.9618450105190277e-01</leafValues></_>
    <_>
      <internalNodes>
        0 -1 3024092 4.9134698929265141e-04</internalNodes>
      <leafValues>
        3.3006912469863892e-01 -5.1978820562362671e-01</leafValues></_>
    <_>
      <internalNodes>
        0 -1 3017046 -2.8426447534002364e-04</internalNodes>
      <leafValues>
        -7.8794097900390625e-01 1.6498523950576782e-01</leafValues></_>
    <_>
      <internalNodes>
        0 -1 2000296 4.0460783056914806e-03</internalNodes>
      <leafValues>
        -2.7077090740203857e-01 6.1949527263641357e-01</leafValues></_>
    <_>
      <internalNodes>
        0 -1 856221 -2.5777961127460003e-03</internalNodes>
      <leafValues>
        6.0007065534591675e-01 -2.4890190362930298e-01</leafValues></_>
    <_>
      <internalNodes>
        0 -1 2823850 2.4496377445757389e-03</internalNodes>
      <leafValues>
        -2.1446339786052704e-01 7.7124089002609253e-01</leafValues></_>
    <_>
      <internalNodes>
        0 -1 1222158 -2.0848982036113739e-02</internalNodes>
      <leafValues>
        8.5643255710601807e-01 -1.8147560954093933e-01</leafValues></_>
    <_>
      <internalNodes>
        0 -1 1470758 7.4405549094080925e-03</internalNodes>
      <leafValues>
        -3.6476129293441772e-01 4.6491453051567078e-01</leafValues></_></weakClassifiers></stage5>
</opencv_storage>
